digraph Tree {
node [shape=box] ;
0 [label="checking_balance <= 1.5\ngini = 0.425\nsamples = 700\nvalue = [486, 214]\nclass = No"] ;
1 [label="months_loan_duration <= 22.5\ngini = 0.495\nsamples = 383\nvalue = [211, 172]\nclass = No"] ;
0 -> 1 [labeldistance=2.5, labelangle=45, headlabel="True"] ;
2 [label="credit_history <= 3.5\ngini = 0.46\nsamples = 223\nvalue = [143, 80]\nclass = No"] ;
1 -> 2 ;
3 [label="months_loan_duration <= 11.0\ngini = 0.441\nsamples = 210\nvalue = [141, 69]\nclass = No"] ;
2 -> 3 ;
4 [label="job <= 0.5\ngini = 0.237\nsamples = 51\nvalue = [44, 7]\nclass = No"] ;
3 -> 4 ;
5 [label="gini = 0.48\nsamples = 10\nvalue = [6, 4]\nclass = No"] ;
4 -> 5 ;
6 [label="gini = 0.136\nsamples = 41\nvalue = [38, 3]\nclass = No"] ;
4 -> 6 ;
7 [label="amount <= 1288.5\ngini = 0.476\nsamples = 159\nvalue = [97, 62]\nclass = No"] ;
3 -> 7 ;
8 [label="gini = 0.492\nsamples = 55\nvalue = [24, 31]\nclass = Yes"] ;
7 -> 8 ;
9 [label="gini = 0.418\nsamples = 104\nvalue = [73, 31]\nclass = No"] ;
7 -> 9 ;
10 [label="age <= 23.5\ngini = 0.26\nsamples = 13\nvalue = [2, 11]\nclass = Yes"] ;
2 -> 10 ;
11 [label="gini = 0.0\nsamples = 1\nvalue = [1, 0]\nclass = No"] ;
10 -> 11 ;
12 [label="amount <= 386.0\ngini = 0.153\nsamples = 12\nvalue = [1, 11]\nclass = Yes"] ;
10 -> 12 ;
13 [label="gini = 0.0\nsamples = 1\nvalue = [1, 0]\nclass = No"] ;
12 -> 13 ;
14 [label="gini = 0.0\nsamples = 11\nvalue = [0, 11]\nclass = Yes"] ;
12 -> 14 ;
15 [label="savings_balance <= 2.5\ngini = 0.489\nsamples = 160\nvalue = [68, 92]\nclass = Yes"] ;
1 -> 15 ;
16 [label="months_loan_duration <= 47.5\ngini = 0.468\nsamples = 131\nvalue = [49, 82]\nclass = Yes"] ;
15 -> 16 ;
17 [label="housing <= 0.5\ngini = 0.491\nsamples = 106\nvalue = [46, 60]\nclass = Yes"] ;
16 -> 17 ;
18 [label="gini = 0.355\nsamples = 13\nvalue = [10, 3]\nclass = No"] ;
17 -> 18 ;
19 [label="gini = 0.475\nsamples = 93\nvalue = [36, 57]\nclass = Yes"] ;
17 -> 19 ;
20 [label="employment_duration <= 3.5\ngini = 0.211\nsamples = 25\nvalue = [3, 22]\nclass = Yes"] ;
16 -> 20 ;
21 [label="gini = 0.153\nsamples = 24\nvalue = [2, 22]\nclass = Yes"] ;
20 -> 21 ;
22 [label="gini = 0.0\nsamples = 1\nvalue = [1, 0]\nclass = No"] ;
20 -> 22 ;
23 [label="checking_balance <= 0.5\ngini = 0.452\nsamples = 29\nvalue = [19, 10]\nclass = No"] ;
15 -> 23 ;
24 [label="amount <= 10059.0\ngini = 0.231\nsamples = 15\nvalue = [13, 2]\nclass = No"] ;
23 -> 24 ;
25 [label="gini = 0.0\nsamples = 13\nvalue = [13, 0]\nclass = No"] ;
24 -> 25 ;
26 [label="gini = 0.0\nsamples = 2\nvalue = [0, 2]\nclass = Yes"] ;
24 -> 26 ;
27 [label="existing_loans_count <= 1.5\ngini = 0.49\nsamples = 14\nvalue = [6, 8]\nclass = Yes"] ;
23 -> 27 ;
28 [label="gini = 0.32\nsamples = 10\nvalue = [2, 8]\nclass = Yes"] ;
27 -> 28 ;
29 [label="gini = 0.0\nsamples = 4\nvalue = [4, 0]\nclass = No"] ;
27 -> 29 ;
30 [label="other_credit <= 0.5\ngini = 0.23\nsamples = 317\nvalue = [275, 42]\nclass = No"] ;
0 -> 30 [labeldistance=2.5, labelangle=-45, headlabel="False"] ;
31 [label="purpose <= 1.5\ngini = 0.451\nsamples = 32\nvalue = [21, 11]\nclass = No"] ;
30 -> 31 ;
32 [label="age <= 44.5\ngini = 0.48\nsamples = 15\nvalue = [6, 9]\nclass = Yes"] ;
31 -> 32 ;
33 [label="percent_of_income <= 1.5\ngini = 0.298\nsamples = 11\nvalue = [2, 9]\nclass = Yes"] ;
32 -> 33 ;
34 [label="gini = 0.0\nsamples = 1\nvalue = [1, 0]\nclass = No"] ;
33 -> 34 ;
35 [label="gini = 0.18\nsamples = 10\nvalue = [1, 9]\nclass = Yes"] ;
33 -> 35 ;
36 [label="gini = 0.0\nsamples = 4\nvalue = [4, 0]\nclass = No"] ;
32 -> 36 ;
37 [label="employment_duration <= 2.5\ngini = 0.208\nsamples = 17\nvalue = [15, 2]\nclass = No"] ;
31 -> 37 ;
38 [label="gini = 0.0\nsamples = 11\nvalue = [11, 0]\nclass = No"] ;
37 -> 38 ;
39 [label="amount <= 2572.5\ngini = 0.444\nsamples = 6\nvalue = [4, 2]\nclass = No"] ;
37 -> 39 ;
40 [label="gini = 0.444\nsamples = 3\nvalue = [1, 2]\nclass = Yes"] ;
39 -> 40 ;
41 [label="gini = 0.0\nsamples = 3\nvalue = [3, 0]\nclass = No"] ;
39 -> 41 ;
42 [label="credit_history <= 1.5\ngini = 0.194\nsamples = 285\nvalue = [254, 31]\nclass = No"] ;
30 -> 42 ;
43 [label="amount <= 10598.0\ngini = 0.154\nsamples = 250\nvalue = [229, 21]\nclass = No"] ;
42 -> 43 ;
44 [label="age <= 19.5\ngini = 0.142\nsamples = 247\nvalue = [228, 19]\nclass = No"] ;
43 -> 44 ;
45 [label="gini = 0.0\nsamples = 1\nvalue = [0, 1]\nclass = Yes"] ;
44 -> 45 ;
46 [label="gini = 0.136\nsamples = 246\nvalue = [228, 18]\nclass = No"] ;
44 -> 46 ;
47 [label="employment_duration <= 1.5\ngini = 0.444\nsamples = 3\nvalue = [1, 2]\nclass = Yes"] ;
43 -> 47 ;
48 [label="gini = 0.0\nsamples = 1\nvalue = [1, 0]\nclass = No"] ;
47 -> 48 ;
49 [label="gini = 0.0\nsamples = 2\nvalue = [0, 2]\nclass = Yes"] ;
47 -> 49 ;
50 [label="checking_balance <= 2.5\ngini = 0.408\nsamples = 35\nvalue = [25, 10]\nclass = No"] ;
42 -> 50 ;
51 [label="gini = 0.0\nsamples = 3\nvalue = [0, 3]\nclass = Yes"] ;
50 -> 51 ;
52 [label="purpose <= 0.5\ngini = 0.342\nsamples = 32\nvalue = [25, 7]\nclass = No"] ;
50 -> 52 ;
53 [label="gini = 0.494\nsamples = 9\nvalue = [5, 4]\nclass = No"] ;
52 -> 53 ;
54 [label="gini = 0.227\nsamples = 23\nvalue = [20, 3]\nclass = No"] ;
52 -> 54 ;
}